4.736736122090335 0.4808925480846653 2.1309809538807554 2.301790726675478 0.9672601777701001 4.513051261371992 1.3618149376708215 -0.35931549952190683 4.293788911942598 4.896723486041273 
1.2444773807170932 4.5291008141258615 -4.922802460408595 -1.5867815685592523 4.438240824977641 -2.787334332787983 3.3346383330006795 4.7107486767691755 -3.5375407663391396 -4.729556133621628 
-3.955574801459665 -3.3337203633742676 4.817881700895082 4.02944638598633 -4.862189459825736 -1.788653139941483 1.4831045987749223 0.2874265420604467 -2.654795429615794 -4.244041203668029 
-4.190795125075759 2.225088271688689 4.258027688518391 1.1652083321796725 4.137507748293589 4.986522414833964 1.7221144868541556 -1.2911214173602066 0.4563686299557872 -3.783104002969069 
-0.8734533251483733 -3.9215155733142004 -0.870845289152453 1.0898971114010687 -3.4972486259506628 1.8244698284336365 -1.320174668159671 -2.97084685297767 -0.23777349901574132 1.1152396237862496 
-0.9169093310405544 3.4073757469029364 3.874930412252861 1.7849939556528394 -2.007659745240102 3.510168242991918 -0.7991588220801875 -2.300418855942599 -5.91173979591598 4.962890358783685 
3.6661195265174475 4.100376976079869 1.7605716725178058 3.564920231219026 2.0033177419618275 3.0477816347898203 -2.979341269852442 4.232114949201097 3.2077640379865073 3.8402119314219183 
4.680631249539348 -1.0857884962493436 1.2871048698641911 4.455229892804914 0.7255986065331587 2.0930714183297936 3.625796043298756 3.42654086156544 -0.4112358675642748 2.0668383104014385 
